FANN_FLO_2.1
num_layers=3
learning_rate=0.700000
connection_rate=1.000000
network_type=0
learning_momentum=0.000000
training_algorithm=2
train_error_function=1
train_stop_function=0
cascade_output_change_fraction=0.010000
quickprop_decay=-0.000100
quickprop_mu=1.750000
rprop_increase_factor=1.200000
rprop_decrease_factor=0.500000
rprop_delta_min=0.000000
rprop_delta_max=50.000000
rprop_delta_zero=0.100000
cascade_output_stagnation_epochs=12
cascade_candidate_change_fraction=0.010000
cascade_candidate_stagnation_epochs=12
cascade_max_out_epochs=150
cascade_min_out_epochs=50
cascade_max_cand_epochs=150
cascade_min_cand_epochs=50
cascade_num_candidate_groups=2
bit_fail_limit=3.49999994039535522461e-01
cascade_candidate_limit=1.00000000000000000000e+03
cascade_weight_multiplier=4.00000005960464477539e-01
cascade_activation_functions_count=10
cascade_activation_functions=3 5 7 8 10 11 14 15 16 17 
cascade_activation_steepnesses_count=4
cascade_activation_steepnesses=2.50000000000000000000e-01 5.00000000000000000000e-01 7.50000000000000000000e-01 1.00000000000000000000e+00 
layer_sizes=3 9 2 
scale_included=0
neurons (num_inputs, activation_function, activation_steepness)=(0, 0, 0.00000000000000000000e+00) (0, 0, 0.00000000000000000000e+00) (0, 0, 0.00000000000000000000e+00) (3, 3, 5.00000000000000000000e-01) (3, 3, 5.00000000000000000000e-01) (3, 3, 5.00000000000000000000e-01) (3, 3, 5.00000000000000000000e-01) (3, 3, 5.00000000000000000000e-01) (3, 3, 5.00000000000000000000e-01) (3, 3, 5.00000000000000000000e-01) (3, 3, 5.00000000000000000000e-01) (0, 3, 0.00000000000000000000e+00) (9, 3, 5.00000000000000000000e-01) (0, 3, 0.00000000000000000000e+00) 
connections (connected_to_neuron, weight)=(0, -1.41368122100830078125e+01) (1, 2.29034767150878906250e+01) (2, -3.15727376937866210938e+00) (0, -1.04433193206787109375e+01) (1, 5.50291061401367187500e+00) (2, 9.36363518238067626953e-01) (0, 4.27596130371093750000e+01) (1, -3.11370582580566406250e+01) (2, 6.75306260585784912109e-01) (0, 1.22129487991333007812e+01) (1, -3.80542488098144531250e+01) (2, 7.43158197402954101562e+00) (0, -2.80909824371337890625e+01) (1, 6.19142684936523437500e+01) (2, 2.13003611564636230469e+00) (0, -5.36658954620361328125e+00) (1, 1.38404130935668945312e+00) (2, 1.86048722267150878906e+00) (0, 4.37218132019042968750e+01) (1, -2.93980121612548828125e+01) (2, -1.09656631946563720703e+00) (0, 3.42004280090332031250e+01) (1, 9.66556167602539062500e+00) (2, -1.03896665573120117188e+01) (3, -6.92496120929718017578e-01) (4, -6.31294965744018554688e-01) (5, -2.46537923812866210938e-01) (6, -6.85377299785614013672e-01) (7, -6.37465000152587890625e-01) (8, -2.99803972244262695312e-01) (9, -4.28780883550643920898e-01) (10, -5.69410741329193115234e-01) (11, 1.00277435779571533203e+00) 
