FANN_FLO_2.1
num_layers=3
learning_rate=0.700000
connection_rate=1.000000
network_type=0
learning_momentum=0.000000
training_algorithm=2
train_error_function=1
train_stop_function=0
cascade_output_change_fraction=0.010000
quickprop_decay=-0.000100
quickprop_mu=1.750000
rprop_increase_factor=1.200000
rprop_decrease_factor=0.500000
rprop_delta_min=0.000000
rprop_delta_max=50.000000
rprop_delta_zero=0.100000
cascade_output_stagnation_epochs=12
cascade_candidate_change_fraction=0.010000
cascade_candidate_stagnation_epochs=12
cascade_max_out_epochs=150
cascade_min_out_epochs=50
cascade_max_cand_epochs=150
cascade_min_cand_epochs=50
cascade_num_candidate_groups=2
bit_fail_limit=3.49999994039535522461e-01
cascade_candidate_limit=1.00000000000000000000e+03
cascade_weight_multiplier=4.00000005960464477539e-01
cascade_activation_functions_count=10
cascade_activation_functions=3 5 7 8 10 11 14 15 16 17 
cascade_activation_steepnesses_count=4
cascade_activation_steepnesses=2.50000000000000000000e-01 5.00000000000000000000e-01 7.50000000000000000000e-01 1.00000000000000000000e+00 
layer_sizes=3 9 2 
scale_included=0
neurons (num_inputs, activation_function, activation_steepness)=(0, 0, 0.00000000000000000000e+00) (0, 0, 0.00000000000000000000e+00) (0, 0, 0.00000000000000000000e+00) (3, 3, 5.00000000000000000000e-01) (3, 3, 5.00000000000000000000e-01) (3, 3, 5.00000000000000000000e-01) (3, 3, 5.00000000000000000000e-01) (3, 3, 5.00000000000000000000e-01) (3, 3, 5.00000000000000000000e-01) (3, 3, 5.00000000000000000000e-01) (3, 3, 5.00000000000000000000e-01) (0, 3, 0.00000000000000000000e+00) (9, 3, 5.00000000000000000000e-01) (0, 3, 0.00000000000000000000e+00) 
connections (connected_to_neuron, weight)=(0, 6.91178894042968750000e+01) (1, -3.86759452819824218750e+01) (2, 3.04218077659606933594e+00) (0, -1.66775643825531005859e+00) (1, 3.72975654602050781250e+01) (2, -6.85447120666503906250e+00) (0, 2.52303848266601562500e+01) (1, -1.49576539993286132812e+01) (2, -4.88679122924804687500e+00) (0, -4.09536857604980468750e+01) (1, 6.60132884979248046875e+00) (2, 1.14301109313964843750e+01) (0, 1.00368700027465820312e+01) (1, 9.48416805267333984375e+00) (2, -7.68744039535522460938e+00) (0, -2.03589458465576171875e+01) (1, 8.86593532562255859375e+00) (2, 1.07072324752807617188e+01) (0, -4.23808479309082031250e+00) (1, 2.84616732597351074219e+00) (2, 4.63483363389968872070e-01) (0, -2.51068992614746093750e+01) (1, 5.22574119567871093750e+01) (2, 5.72647869586944580078e-01) (3, -9.79316420853137969971e-03) (4, -3.13824534416198730469e-01) (5, -6.47327959537506103516e-01) (6, -5.36113142967224121094e-01) (7, -2.54717707633972167969e-01) (8, -1.61740350723266601562e+00) (9, 6.22905194759368896484e-01) (10, -2.53360688686370849609e-01) (11, 9.49318230152130126953e-01) 
